digraph Tree {
node [shape=box, style="filled", color="black", fontname="helvetica"] ;
edge [fontname="helvetica"] ;
0 [label="Savings_Percentage <= 10.5\nsquared_error = 1.681\nsamples = 79870\nvalue = 1.853", fillcolor="#f4c8a9"] ;
1 [label="Savings_Percentage <= -0.5\nsquared_error = 1.123\nsamples = 31067\nvalue = 3.001", fillcolor="#eca26d"] ;
0 -> 1 [labeldistance=2.5, labelangle=45, headlabel="True"] ;
2 [label="Latitude (Deg North) <= 19.27\nsquared_error = 0.923\nsamples = 1974\nvalue = 0.684", fillcolor="#fcefe6"] ;
1 -> 2 ;
3 [label="squared_error = 0.0\nsamples = 142\nvalue = 4.0", fillcolor="#e58139"] ;
2 -> 3 ;
4 [label="Savings_Percentage <= -43.0\nsquared_error = 0.076\nsamples = 1832\nvalue = 0.427", fillcolor="#fdf7f3"] ;
2 -> 4 ;
5 [label="Savings_Percentage <= -57.5\nsquared_error = 0.004\nsamples = 616\nvalue = 0.265", fillcolor="#fffdfc"] ;
4 -> 5 ;
6 [label="squared_error = -0.0\nsamples = 307\nvalue = 0.2", fillcolor="#ffffff"] ;
5 -> 6 ;
7 [label="squared_error = -0.0\nsamples = 309\nvalue = 0.33", fillcolor="#fefbf8"] ;
5 -> 7 ;
8 [label="Latitude (Deg North) <= 26.795\nsquared_error = 0.092\nsamples = 1216\nvalue = 0.508", fillcolor="#fdf5ef"] ;
4 -> 8 ;
9 [label="Savings_Percentage <= -21.5\nsquared_error = 0.062\nsamples = 608\nvalue = 0.751", fillcolor="#fbede2"] ;
8 -> 9 ;
10 [label="squared_error = 0.0\nsamples = 303\nvalue = 0.5", fillcolor="#fdf5ef"] ;
9 -> 10 ;
11 [label="squared_error = 0.0\nsamples = 305\nvalue = 1.0", fillcolor="#fae4d5"] ;
9 -> 11 ;
12 [label="Savings_Percentage <= -2.5\nsquared_error = 0.004\nsamples = 608\nvalue = 0.266", fillcolor="#fffdfc"] ;
8 -> 12 ;
13 [label="squared_error = -0.0\nsamples = 299\nvalue = 0.2", fillcolor="#ffffff"] ;
12 -> 13 ;
14 [label="Latitude (Deg North) <= 29.17\nsquared_error = 0.0\nsamples = 309\nvalue = 0.33", fillcolor="#fefbf8"] ;
12 -> 14 ;
15 [label="squared_error = 0.0\nsamples = 36\nvalue = 0.33", fillcolor="#fefbf8"] ;
14 -> 15 ;
16 [label="squared_error = 0.0\nsamples = 273\nvalue = 0.33", fillcolor="#fefbf8"] ;
14 -> 16 ;
17 [label="Savings_Percentage <= 5.5\nsquared_error = 0.748\nsamples = 29093\nvalue = 3.158", fillcolor="#eb9d65"] ;
1 -> 17 ;
18 [label="Savings_Percentage <= 0.5\nsquared_error = 0.432\nsamples = 15635\nvalue = 3.634", fillcolor="#e88d4c"] ;
17 -> 18 ;
19 [label="squared_error = 0.0\nsamples = 7082\nvalue = 4.0", fillcolor="#e58139"] ;
18 -> 19 ;
20 [label="Savings_Percentage <= 2.5\nsquared_error = 0.586\nsamples = 8553\nvalue = 3.332", fillcolor="#ea975c"] ;
18 -> 20 ;
21 [label="Latitude (Deg North) <= 29.465\nsquared_error = 3.062\nsamples = 604\nvalue = 2.233", fillcolor="#f1bc95"] ;
20 -> 21 ;
22 [label="Longitude (Deg East) <= 75.26\nsquared_error = 1.299\nsamples = 340\nvalue = 3.578", fillcolor="#e88f4f"] ;
21 -> 22 ;
23 [label="squared_error = 0.0\nsamples = 41\nvalue = 0.5", fillcolor="#fdf5ef"] ;
22 -> 23 ;
24 [label="squared_error = 0.0\nsamples = 299\nvalue = 4.0", fillcolor="#e58139"] ;
22 -> 24 ;
25 [label="squared_error = 0.0\nsamples = 264\nvalue = 0.5", fillcolor="#fdf5ef"] ;
21 -> 25 ;
26 [label="Longitude (Deg East) <= 80.608\nsquared_error = 0.3\nsamples = 7949\nvalue = 3.415", fillcolor="#e99457"] ;
20 -> 26 ;
27 [label="Latitude (Deg North) <= 29.465\nsquared_error = 0.011\nsamples = 6581\nvalue = 3.524", fillcolor="#e89152"] ;
26 -> 27 ;
28 [label="squared_error = 0.0\nsamples = 5968\nvalue = 3.5", fillcolor="#e89253"] ;
27 -> 28 ;
29 [label="Savings_Percentage <= 3.5\nsquared_error = 0.062\nsamples = 613\nvalue = 3.756", fillcolor="#e78946"] ;
27 -> 29 ;
30 [label="Longitude (Deg East) <= 76.453\nsquared_error = 0.06\nsamples = 271\nvalue = 3.797", fillcolor="#e68844"] ;
29 -> 30 ;
31 [label="squared_error = 0.0\nsamples = 161\nvalue = 4.0", fillcolor="#e58139"] ;
30 -> 31 ;
32 [label="squared_error = 0.0\nsamples = 110\nvalue = 3.5", fillcolor="#e89253"] ;
30 -> 32 ;
33 [label="Longitude (Deg East) <= 76.453\nsquared_error = 0.062\nsamples = 342\nvalue = 3.724", fillcolor="#e78a47"] ;
29 -> 33 ;
34 [label="squared_error = 0.0\nsamples = 154\nvalue = 3.5", fillcolor="#e89253"] ;
33 -> 34 ;
35 [label="squared_error = 0.038\nsamples = 188\nvalue = 3.907", fillcolor="#e6843e"] ;
33 -> 35 ;
36 [label="Latitude (Deg North) <= 24.07\nsquared_error = 1.355\nsamples = 1368\nvalue = 2.891", fillcolor="#eda673"] ;
26 -> 36 ;
37 [label="squared_error = 0.0\nsamples = 611\nvalue = 3.5", fillcolor="#e89253"] ;
36 -> 37 ;
38 [label="Savings_Percentage <= 3.5\nsquared_error = 1.908\nsamples = 757\nvalue = 2.4", fillcolor="#f0b68c"] ;
36 -> 38 ;
39 [label="squared_error = 0.0\nsamples = 149\nvalue = 1.5", fillcolor="#f6d4bb"] ;
38 -> 39 ;
40 [label="Savings_Percentage <= 4.5\nsquared_error = 2.128\nsamples = 608\nvalue = 2.621", fillcolor="#eeaf81"] ;
38 -> 40 ;
41 [label="squared_error = 0.0\nsamples = 263\nvalue = 3.5", fillcolor="#e89253"] ;
40 -> 41 ;
42 [label="Latitude (Deg North) <= 26.21\nsquared_error = 2.712\nsamples = 345\nvalue = 1.95", fillcolor="#f3c5a4"] ;
40 -> 42 ;
43 [label="squared_error = 0.0\nsamples = 145\nvalue = 3.5", fillcolor="#e89253"] ;
42 -> 43 ;
44 [label="squared_error = 1.676\nsamples = 200\nvalue = 0.827", fillcolor="#fbeade"] ;
42 -> 44 ;
45 [label="Longitude (Deg East) <= 80.608\nsquared_error = 0.547\nsamples = 13458\nvalue = 2.605", fillcolor="#efaf82"] ;
17 -> 45 ;
46 [label="Latitude (Deg North) <= 29.465\nsquared_error = 0.298\nsamples = 10743\nvalue = 2.748", fillcolor="#eeab7a"] ;
45 -> 46 ;
47 [label="Longitude (Deg East) <= 72.701\nsquared_error = 0.171\nsamples = 8636\nvalue = 2.833", fillcolor="#eda876"] ;
46 -> 47 ;
48 [label="Savings_Percentage <= 6.5\nsquared_error = 1.221\nsamples = 496\nvalue = 2.258", fillcolor="#f1bb94"] ;
47 -> 48 ;
49 [label="squared_error = -0.0\nsamples = 40\nvalue = 0.2", fillcolor="#ffffff"] ;
48 -> 49 ;
50 [label="Savings_Percentage <= 8.5\nsquared_error = 0.924\nsamples = 456\nvalue = 2.438", fillcolor="#f0b58a"] ;
48 -> 50 ;
51 [label="Savings_Percentage <= 7.5\nsquared_error = 0.673\nsamples = 341\nvalue = 2.718", fillcolor="#eeac7c"] ;
50 -> 51 ;
52 [label="squared_error = 0.0\nsamples = 35\nvalue = 3.0", fillcolor="#eca26d"] ;
51 -> 52 ;
53 [label="squared_error = 0.74\nsamples = 306\nvalue = 2.686", fillcolor="#eead7d"] ;
51 -> 53 ;
54 [label="Savings_Percentage <= 9.5\nsquared_error = 0.747\nsamples = 115\nvalue = 1.609", fillcolor="#f5d0b6"] ;
50 -> 54 ;
55 [label="squared_error = 0.994\nsamples = 78\nvalue = 1.423", fillcolor="#f7d6bf"] ;
54 -> 55 ;
56 [label="squared_error = 0.0\nsamples = 37\nvalue = 2.0", fillcolor="#f3c3a1"] ;
54 -> 56 ;
57 [label="Savings_Percentage <= 9.5\nsquared_error = 0.085\nsamples = 8140\nvalue = 2.868", fillcolor="#eda774"] ;
47 -> 57 ;
58 [label="Latitude (Deg North) <= 28.315\nsquared_error = 0.073\nsamples = 5987\nvalue = 2.949", fillcolor="#eca470"] ;
57 -> 58 ;
59 [label="Latitude (Deg North) <= 27.47\nsquared_error = 0.067\nsamples = 5837\nvalue = 2.935", fillcolor="#eca470"] ;
58 -> 59 ;
60 [label="Savings_Percentage <= 8.5\nsquared_error = 0.017\nsamples = 5583\nvalue = 2.962", fillcolor="#eca36f"] ;
59 -> 60 ;
61 [label="squared_error = 0.0\nsamples = 3512\nvalue = 3.0", fillcolor="#eca26d"] ;
60 -> 61 ;
62 [label="Latitude (Deg North) <= 14.11\nsquared_error = 0.04\nsamples = 2071\nvalue = 2.899", fillcolor="#eda672"] ;
60 -> 62 ;
63 [label="squared_error = 0.0\nsamples = 1061\nvalue = 3.0", fillcolor="#eca26d"] ;
62 -> 63 ;
64 [label="Latitude (Deg North) <= 17.525\nsquared_error = 0.061\nsamples = 1010\nvalue = 2.793", fillcolor="#eda978"] ;
62 -> 64 ;
65 [label="squared_error = 0.0\nsamples = 419\nvalue = 2.5", fillcolor="#efb387"] ;
64 -> 65 ;
66 [label="squared_error = 0.0\nsamples = 591\nvalue = 3.0", fillcolor="#eca26d"] ;
64 -> 66 ;
67 [label="Savings_Percentage <= 8.5\nsquared_error = 0.767\nsamples = 254\nvalue = 2.329", fillcolor="#f0b890"] ;
59 -> 67 ;
68 [label="Savings_Percentage <= 7.0\nsquared_error = 0.858\nsamples = 175\nvalue = 2.594", fillcolor="#efb082"] ;
67 -> 68 ;
69 [label="squared_error = 1.101\nsamples = 136\nvalue = 2.621", fillcolor="#eeaf81"] ;
68 -> 69 ;
70 [label="squared_error = 0.0\nsamples = 39\nvalue = 2.5", fillcolor="#efb387"] ;
68 -> 70 ;
71 [label="squared_error = 0.062\nsamples = 79\nvalue = 1.741", fillcolor="#f4ccaf"] ;
67 -> 71 ;
72 [label="squared_error = 0.0\nsamples = 150\nvalue = 3.5", fillcolor="#e89253"] ;
58 -> 72 ;
73 [label="Latitude (Deg North) <= 23.92\nsquared_error = 0.051\nsamples = 2153\nvalue = 2.644", fillcolor="#eeae80"] ;
57 -> 73 ;
74 [label="squared_error = 0.0\nsamples = 1535\nvalue = 2.5", fillcolor="#efb387"] ;
73 -> 74 ;
75 [label="squared_error = 0.0\nsamples = 618\nvalue = 3.0", fillcolor="#eca26d"] ;
73 -> 75 ;
76 [label="Latitude (Deg North) <= 30.98\nsquared_error = 0.67\nsamples = 2107\nvalue = 2.4", fillcolor="#f0b68c"] ;
46 -> 76 ;
77 [label="Savings_Percentage <= 8.5\nsquared_error = 0.64\nsamples = 1599\nvalue = 2.171", fillcolor="#f2be98"] ;
76 -> 77 ;
78 [label="Savings_Percentage <= 6.5\nsquared_error = 1.076\nsamples = 722\nvalue = 2.244", fillcolor="#f1bb95"] ;
77 -> 78 ;
79 [label="squared_error = 1.334\nsamples = 537\nvalue = 2.102", fillcolor="#f2c09c"] ;
78 -> 79 ;
80 [label="Savings_Percentage <= 7.5\nsquared_error = 0.102\nsamples = 185\nvalue = 2.654", fillcolor="#eeae7f"] ;
78 -> 80 ;
81 [label="squared_error = 0.244\nsamples = 46\nvalue = 2.87", fillcolor="#eda674"] ;
80 -> 81 ;
82 [label="squared_error = 0.035\nsamples = 139\nvalue = 2.583", fillcolor="#efb083"] ;
80 -> 82 ;
83 [label="Savings_Percentage <= 9.5\nsquared_error = 0.274\nsamples = 877\nvalue = 2.111", fillcolor="#f2c09b"] ;
77 -> 83 ;
84 [label="squared_error = 0.39\nsamples = 518\nvalue = 2.001", fillcolor="#f3c3a1"] ;
83 -> 84 ;
85 [label="squared_error = 0.062\nsamples = 359\nvalue = 2.27", fillcolor="#f1ba93"] ;
83 -> 85 ;
86 [label="Savings_Percentage <= 7.5\nsquared_error = 0.082\nsamples = 508\nvalue = 3.119", fillcolor="#eb9e67"] ;
76 -> 86 ;
87 [label="squared_error = 0.042\nsamples = 201\nvalue = 3.393", fillcolor="#e99559"] ;
86 -> 87 ;
88 [label="Savings_Percentage <= 9.5\nsquared_error = 0.026\nsamples = 307\nvalue = 2.94", fillcolor="#eca470"] ;
86 -> 88 ;
89 [label="Savings_Percentage <= 8.5\nsquared_error = 0.045\nsamples = 155\nvalue = 2.881", fillcolor="#eda673"] ;
88 -> 89 ;
90 [label="squared_error = 0.0\nsamples = 118\nvalue = 3.0", fillcolor="#eca26d"] ;
89 -> 90 ;
91 [label="squared_error = 0.0\nsamples = 37\nvalue = 2.5", fillcolor="#efb387"] ;
89 -> 91 ;
92 [label="squared_error = 0.0\nsamples = 152\nvalue = 3.0", fillcolor="#eca26d"] ;
88 -> 92 ;
93 [label="Longitude (Deg East) <= 82.082\nsquared_error = 1.128\nsamples = 2715\nvalue = 2.039", fillcolor="#f2c29f"] ;
45 -> 93 ;
94 [label="Savings_Percentage <= 6.5\nsquared_error = 1.173\nsamples = 1632\nvalue = 1.543", fillcolor="#f6d2b9"] ;
93 -> 94 ;
95 [label="squared_error = 0.004\nsamples = 268\nvalue = 0.271", fillcolor="#fffdfb"] ;
94 -> 95 ;
96 [label="Savings_Percentage <= 7.5\nsquared_error = 1.022\nsamples = 1364\nvalue = 1.793", fillcolor="#f4caac"] ;
94 -> 96 ;
97 [label="squared_error = 0.0\nsamples = 282\nvalue = 3.0", fillcolor="#eca26d"] ;
96 -> 97 ;
98 [label="Savings_Percentage <= 8.5\nsquared_error = 0.81\nsamples = 1082\nvalue = 1.478", fillcolor="#f6d5bc"] ;
96 -> 98 ;
99 [label="squared_error = 0.007\nsamples = 272\nvalue = 0.429", fillcolor="#fdf7f3"] ;
98 -> 99 ;
100 [label="Savings_Percentage <= 9.5\nsquared_error = 0.586\nsamples = 810\nvalue = 1.831", fillcolor="#f4c9aa"] ;
98 -> 100 ;
101 [label="squared_error = 0.868\nsamples = 414\nvalue = 2.002", fillcolor="#f3c3a1"] ;
100 -> 101 ;
102 [label="squared_error = 0.227\nsamples = 396\nvalue = 1.652", fillcolor="#f5cfb3"] ;
100 -> 102 ;
103 [label="Latitude (Deg North) <= 24.07\nsquared_error = 0.13\nsamples = 1083\nvalue = 2.787", fillcolor="#eda978"] ;
93 -> 103 ;
104 [label="squared_error = 0.0\nsamples = 616\nvalue = 3.0", fillcolor="#eca26d"] ;
103 -> 104 ;
105 [label="Savings_Percentage <= 8.5\nsquared_error = 0.162\nsamples = 467\nvalue = 2.505", fillcolor="#efb387"] ;
103 -> 105 ;
106 [label="squared_error = 0.25\nsamples = 303\nvalue = 2.508", fillcolor="#efb287"] ;
105 -> 106 ;
107 [label="squared_error = 0.0\nsamples = 164\nvalue = 2.5", fillcolor="#efb387"] ;
105 -> 107 ;
108 [label="Savings_Percentage <= 15.5\nsquared_error = 0.663\nsamples = 48803\nvalue = 1.122", fillcolor="#f9e0cf"] ;
0 -> 108 [labeldistance=2.5, labelangle=-45, headlabel="False"] ;
109 [label="Savings_Percentage <= 12.5\nsquared_error = 0.535\nsamples = 19439\nvalue = 1.69", fillcolor="#f5ceb1"] ;
108 -> 109 ;
110 [label="Latitude (Deg North) <= 18.105\nsquared_error = 0.535\nsamples = 8525\nvalue = 1.946", fillcolor="#f3c5a4"] ;
109 -> 110 ;
111 [label="Latitude (Deg North) <= 14.11\nsquared_error = 0.075\nsamples = 3170\nvalue = 2.361", fillcolor="#f0b78e"] ;
110 -> 111 ;
112 [label="squared_error = 0.0\nsamples = 1494\nvalue = 2.5", fillcolor="#efb387"] ;
111 -> 112 ;
113 [label="Latitude (Deg North) <= 15.315\nsquared_error = 0.109\nsamples = 1676\nvalue = 2.237", fillcolor="#f1bb95"] ;
111 -> 113 ;
114 [label="Savings_Percentage <= 11.5\nsquared_error = 0.056\nsamples = 458\nvalue = 1.83", fillcolor="#f4c9aa"] ;
113 -> 114 ;
115 [label="squared_error = 0.0\nsamples = 264\nvalue = 2.0", fillcolor="#f3c3a1"] ;
114 -> 115 ;
116 [label="squared_error = 0.039\nsamples = 194\nvalue = 1.598", fillcolor="#f5d1b6"] ;
114 -> 116 ;
117 [label="Latitude (Deg North) <= 17.525\nsquared_error = 0.043\nsamples = 1218\nvalue = 2.391", fillcolor="#f0b68d"] ;
113 -> 117 ;
118 [label="Longitude (Deg East) <= 76.157\nsquared_error = 0.062\nsamples = 602\nvalue = 2.279", fillcolor="#f1ba93"] ;
117 -> 118 ;
119 [label="squared_error = 0.0\nsamples = 295\nvalue = 2.5", fillcolor="#efb387"] ;
118 -> 119 ;
120 [label="Savings_Percentage <= 11.5\nsquared_error = 0.029\nsamples = 307\nvalue = 2.067", fillcolor="#f2c19e"] ;
118 -> 120 ;
121 [label="squared_error = 0.0\nsamples = 146\nvalue = 2.0", fillcolor="#f3c3a1"] ;
120 -> 121 ;
122 [label="squared_error = 0.047\nsamples = 161\nvalue = 2.127", fillcolor="#f2bf9b"] ;
120 -> 122 ;
123 [label="squared_error = 0.0\nsamples = 616\nvalue = 2.5", fillcolor="#efb387"] ;
117 -> 123 ;
124 [label="Longitude (Deg East) <= 73.785\nsquared_error = 0.644\nsamples = 5355\nvalue = 1.7", fillcolor="#f5cdb1"] ;
110 -> 124 ;
125 [label="Latitude (Deg North) <= 23.805\nsquared_error = 0.245\nsamples = 1316\nvalue = 2.204", fillcolor="#f1bd97"] ;
124 -> 125 ;
126 [label="Savings_Percentage <= 11.5\nsquared_error = 0.279\nsamples = 1049\nvalue = 2.129", fillcolor="#f2bf9a"] ;
125 -> 126 ;
127 [label="Latitude (Deg North) <= 22.1\nsquared_error = 0.224\nsamples = 450\nvalue = 2.252", fillcolor="#f1bb94"] ;
126 -> 127 ;
128 [label="squared_error = 0.061\nsamples = 99\nvalue = 2.293", fillcolor="#f1ba92"] ;
127 -> 128 ;
129 [label="squared_error = 0.269\nsamples = 351\nvalue = 2.241", fillcolor="#f1bb95"] ;
127 -> 129 ;
130 [label="Latitude (Deg North) <= 20.12\nsquared_error = 0.301\nsamples = 599\nvalue = 2.036", fillcolor="#f2c29f"] ;
126 -> 130 ;
131 [label="squared_error = 0.0\nsamples = 306\nvalue = 2.0", fillcolor="#f3c3a1"] ;
130 -> 131 ;
132 [label="squared_error = 0.612\nsamples = 293\nvalue = 2.074", fillcolor="#f2c19d"] ;
130 -> 132 ;
133 [label="squared_error = 0.0\nsamples = 267\nvalue = 2.5", fillcolor="#efb387"] ;
125 -> 133 ;
134 [label="Latitude (Deg North) <= 26.885\nsquared_error = 0.665\nsamples = 4039\nvalue = 1.536", fillcolor="#f6d3b9"] ;
124 -> 134 ;
135 [label="Longitude (Deg East) <= 78.25\nsquared_error = 0.626\nsamples = 3539\nvalue = 1.41", fillcolor="#f7d7c0"] ;
134 -> 135 ;
136 [label="Savings_Percentage <= 11.5\nsquared_error = 0.567\nsamples = 2654\nvalue = 1.216", fillcolor="#f8ddca"] ;
135 -> 136 ;
137 [label="Longitude (Deg East) <= 74.6\nsquared_error = 0.741\nsamples = 901\nvalue = 1.441", fillcolor="#f7d6be"] ;
136 -> 137 ;
138 [label="squared_error = 0.901\nsamples = 338\nvalue = 1.288", fillcolor="#f8dbc6"] ;
137 -> 138 ;
139 [label="Latitude (Deg North) <= 21.57\nsquared_error = 0.622\nsamples = 563\nvalue = 1.533", fillcolor="#f6d3ba"] ;
137 -> 139 ;
140 [label="squared_error = 0.0\nsamples = 152\nvalue = 2.0", fillcolor="#f3c3a1"] ;
139 -> 140 ;
141 [label="squared_error = 0.742\nsamples = 411\nvalue = 1.361", fillcolor="#f7d9c3"] ;
139 -> 141 ;
142 [label="Longitude (Deg East) <= 76.378\nsquared_error = 0.439\nsamples = 1753\nvalue = 1.1", fillcolor="#f9e1d0"] ;
136 -> 142 ;
143 [label="Longitude (Deg East) <= 74.6\nsquared_error = 0.433\nsamples = 891\nvalue = 1.277", fillcolor="#f8dbc7"] ;
142 -> 143 ;
144 [label="squared_error = 0.449\nsamples = 570\nvalue = 1.013", fillcolor="#f9e4d5"] ;
143 -> 144 ;
145 [label="squared_error = 0.062\nsamples = 321\nvalue = 1.746", fillcolor="#f4ccae"] ;
143 -> 145 ;
146 [label="squared_error = 0.378\nsamples = 862\nvalue = 0.916", fillcolor="#fae7da"] ;
142 -> 146 ;
147 [label="Latitude (Deg North) <= 24.71\nsquared_error = 0.349\nsamples = 885\nvalue = 1.993", fillcolor="#f3c4a2"] ;
135 -> 147 ;
148 [label="squared_error = 0.0\nsamples = 456\nvalue = 2.5", fillcolor="#efb387"] ;
147 -> 148 ;
149 [label="Savings_Percentage <= 11.5\nsquared_error = 0.157\nsamples = 429\nvalue = 1.455", fillcolor="#f6d5be"] ;
147 -> 149 ;
150 [label="squared_error = 0.052\nsamples = 390\nvalue = 1.35", fillcolor="#f7d9c3"] ;
149 -> 150 ;
151 [label="squared_error = 0.0\nsamples = 39\nvalue = 2.5", fillcolor="#efb387"] ;
149 -> 151 ;
152 [label="Longitude (Deg East) <= 76.91\nsquared_error = 0.033\nsamples = 500\nvalue = 2.427", fillcolor="#f0b58b"] ;
134 -> 152 ;
153 [label="Savings_Percentage <= 11.5\nsquared_error = 0.021\nsamples = 464\nvalue = 2.46", fillcolor="#f0b489"] ;
152 -> 153 ;
154 [label="squared_error = 0.046\nsamples = 41\nvalue = 2.049", fillcolor="#f2c29f"] ;
153 -> 154 ;
155 [label="squared_error = 0.0\nsamples = 423\nvalue = 2.5", fillcolor="#efb387"] ;
153 -> 155 ;
156 [label="squared_error = 0.0\nsamples = 36\nvalue = 2.0", fillcolor="#f3c3a1"] ;
152 -> 156 ;
157 [label="Latitude (Deg North) <= 23.92\nsquared_error = 0.443\nsamples = 10914\nvalue = 1.49", fillcolor="#f6d4bc"] ;
109 -> 157 ;
158 [label="Longitude (Deg East) <= 78.596\nsquared_error = 0.392\nsamples = 8962\nvalue = 1.39", fillcolor="#f7d8c1"] ;
157 -> 158 ;
159 [label="Latitude (Deg North) <= 18.095\nsquared_error = 0.4\nsamples = 6996\nvalue = 1.25", fillcolor="#f8dcc8"] ;
158 -> 159 ;
160 [label="Longitude (Deg East) <= 76.414\nsquared_error = 0.255\nsamples = 3119\nvalue = 1.547", fillcolor="#f6d2b9"] ;
159 -> 160 ;
161 [label="Savings_Percentage <= 13.5\nsquared_error = 0.055\nsamples = 1364\nvalue = 1.834", fillcolor="#f4c9aa"] ;
160 -> 161 ;
162 [label="squared_error = 0.0\nsamples = 591\nvalue = 2.0", fillcolor="#f3c3a1"] ;
161 -> 162 ;
163 [label="Longitude (Deg East) <= 75.381\nsquared_error = 0.061\nsamples = 773\nvalue = 1.708", fillcolor="#f5cdb0"] ;
161 -> 163 ;
164 [label="squared_error = 0.0\nsamples = 452\nvalue = 1.5", fillcolor="#f6d4bb"] ;
163 -> 164 ;
165 [label="squared_error = 0.0\nsamples = 321\nvalue = 2.0", fillcolor="#f3c3a1"] ;
163 -> 165 ;
166 [label="Latitude (Deg North) <= 14.055\nsquared_error = 0.296\nsamples = 1755\nvalue = 1.324", fillcolor="#f7dac4"] ;
160 -> 166 ;
167 [label="Savings_Percentage <= 14.0\nsquared_error = 0.006\nsamples = 462\nvalue = 2.012", fillcolor="#f3c3a1"] ;
166 -> 167 ;
168 [label="squared_error = 0.0\nsamples = 11\nvalue = 2.5", fillcolor="#efb387"] ;
167 -> 168 ;
169 [label="squared_error = 0.0\nsamples = 451\nvalue = 2.0", fillcolor="#f3c3a1"] ;
167 -> 169 ;
170 [label="Longitude (Deg East) <= 77.704\nsquared_error = 0.17\nsamples = 1293\nvalue = 1.078", fillcolor="#f9e2d1"] ;
166 -> 170 ;
171 [label="Savings_Percentage <= 14.5\nsquared_error = 0.157\nsamples = 715\nvalue = 0.896", fillcolor="#fae8db"] ;
170 -> 171 ;
172 [label="Savings_Percentage <= 13.5\nsquared_error = 0.145\nsamples = 561\nvalue = 1.005", fillcolor="#f9e4d5"] ;
171 -> 172 ;
173 [label="squared_error = 0.283\nsamples = 288\nvalue = 1.009", fillcolor="#f9e4d5"] ;
172 -> 173 ;
174 [label="squared_error = 0.0\nsamples = 273\nvalue = 1.0", fillcolor="#fae4d5"] ;
172 -> 174 ;
175 [label="squared_error = 0.0\nsamples = 154\nvalue = 0.5", fillcolor="#fdf5ef"] ;
171 -> 175 ;
176 [label="Savings_Percentage <= 13.5\nsquared_error = 0.095\nsamples = 578\nvalue = 1.304", fillcolor="#f7dac5"] ;
170 -> 176 ;
177 [label="squared_error = 0.0\nsamples = 269\nvalue = 1.5", fillcolor="#f6d4bb"] ;
176 -> 177 ;
178 [label="Savings_Percentage <= 14.5\nsquared_error = 0.115\nsamples = 309\nvalue = 1.133", fillcolor="#f9e0ce"] ;
176 -> 178 ;
179 [label="squared_error = 0.0\nsamples = 152\nvalue = 1.0", fillcolor="#fae4d5"] ;
178 -> 179 ;
180 [label="squared_error = 0.193\nsamples = 157\nvalue = 1.261", fillcolor="#f8dcc8"] ;
178 -> 180 ;
181 [label="Longitude (Deg East) <= 73.367\nsquared_error = 0.389\nsamples = 3877\nvalue = 1.011", fillcolor="#f9e4d5"] ;
159 -> 181 ;
182 [label="Longitude (Deg East) <= 72.854\nsquared_error = 0.215\nsamples = 1301\nvalue = 1.575", fillcolor="#f6d1b7"] ;
181 -> 182 ;
183 [label="Savings_Percentage <= 13.5\nsquared_error = 0.253\nsamples = 838\nvalue = 1.709", fillcolor="#f5cdb0"] ;
182 -> 183 ;
184 [label="Longitude (Deg East) <= 72.701\nsquared_error = 0.486\nsamples = 327\nvalue = 1.488", fillcolor="#f6d4bc"] ;
183 -> 184 ;
185 [label="squared_error = -0.0\nsamples = 208\nvalue = 2.0", fillcolor="#f3c3a1"] ;
184 -> 185 ;
186 [label="squared_error = 0.077\nsamples = 119\nvalue = 0.593", fillcolor="#fcf2eb"] ;
184 -> 186 ;
187 [label="Latitude (Deg North) <= 22.1\nsquared_error = 0.052\nsamples = 511\nvalue = 1.85", fillcolor="#f4c8a9"] ;
183 -> 187 ;
188 [label="squared_error = 0.0\nsamples = 279\nvalue = 2.0", fillcolor="#f3c3a1"] ;
187 -> 188 ;
189 [label="Savings_Percentage <= 14.5\nsquared_error = 0.056\nsamples = 232\nvalue = 1.67", fillcolor="#f5ceb2"] ;
187 -> 189 ;
190 [label="squared_error = 0.0\nsamples = 79\nvalue = 2.0", fillcolor="#f3c3a1"] ;
189 -> 190 ;
191 [label="squared_error = 0.0\nsamples = 153\nvalue = 1.5", fillcolor="#f6d4bb"] ;
189 -> 191 ;
192 [label="Savings_Percentage <= 14.5\nsquared_error = 0.055\nsamples = 463\nvalue = 1.334", fillcolor="#f7d9c4"] ;
182 -> 192 ;
193 [label="squared_error = 0.0\nsamples = 309\nvalue = 1.5", fillcolor="#f6d4bb"] ;
192 -> 193 ;
194 [label="squared_error = 0.0\nsamples = 154\nvalue = 1.0", fillcolor="#fae4d5"] ;
192 -> 194 ;
195 [label="Savings_Percentage <= 14.5\nsquared_error = 0.234\nsamples = 2576\nvalue = 0.726", fillcolor="#fbeee4"] ;
181 -> 195 ;
196 [label="Longitude (Deg East) <= 74.6\nsquared_error = 0.206\nsamples = 2498\nvalue = 0.694", fillcolor="#fcefe5"] ;
195 -> 196 ;
197 [label="squared_error = 0.268\nsamples = 785\nvalue = 0.846", fillcolor="#fbeadd"] ;
196 -> 197 ;
198 [label="Savings_Percentage <= 13.5\nsquared_error = 0.161\nsamples = 1713\nvalue = 0.624", fillcolor="#fcf1e9"] ;
196 -> 198 ;
199 [label="Latitude (Deg North) <= 21.57\nsquared_error = 0.189\nsamples = 1095\nvalue = 0.685", fillcolor="#fcefe6"] ;
198 -> 199 ;
200 [label="squared_error = 0.234\nsamples = 760\nvalue = 0.713", fillcolor="#fbeee4"] ;
199 -> 200 ;
201 [label="squared_error = 0.082\nsamples = 335\nvalue = 0.623", fillcolor="#fcf1e9"] ;
199 -> 201 ;
202 [label="squared_error = 0.094\nsamples = 618\nvalue = 0.516", fillcolor="#fdf5ef"] ;
198 -> 202 ;
203 [label="Longitude (Deg East) <= 75.635\nsquared_error = 0.062\nsamples = 78\nvalue = 1.756", fillcolor="#f4cbae"] ;
195 -> 203 ;
204 [label="squared_error = 0.0\nsamples = 38\nvalue = 1.5", fillcolor="#f6d4bb"] ;
203 -> 204 ;
205 [label="squared_error = 0.0\nsamples = 40\nvalue = 2.0", fillcolor="#f3c3a1"] ;
203 -> 205 ;
206 [label="Latitude (Deg North) <= 15.385\nsquared_error = 0.043\nsamples = 1966\nvalue = 1.889", fillcolor="#f3c7a7"] ;
158 -> 206 ;
207 [label="squared_error = 0.0\nsamples = 615\nvalue = 2.0", fillcolor="#f3c3a1"] ;
206 -> 207 ;
208 [label="Latitude (Deg North) <= 21.86\nsquared_error = 0.055\nsamples = 1351\nvalue = 1.838", fillcolor="#f4c9aa"] ;
206 -> 208 ;
209 [label="Savings_Percentage <= 14.5\nsquared_error = 0.061\nsamples = 1038\nvalue = 1.789", fillcolor="#f4caac"] ;
208 -> 209 ;
210 [label="Longitude (Deg East) <= 81.153\nsquared_error = 0.041\nsamples = 755\nvalue = 1.897", fillcolor="#f3c7a7"] ;
209 -> 210 ;
211 [label="Savings_Percentage <= 13.5\nsquared_error = 0.056\nsamples = 454\nvalue = 1.829", fillcolor="#f4c9aa"] ;
210 -> 211 ;
212 [label="squared_error = 0.0\nsamples = 258\nvalue = 2.0", fillcolor="#f3c3a1"] ;
211 -> 212 ;
213 [label="squared_error = 0.041\nsamples = 196\nvalue = 1.605", fillcolor="#f5d0b6"] ;
211 -> 213 ;
214 [label="squared_error = 0.0\nsamples = 301\nvalue = 2.0", fillcolor="#f3c3a1"] ;
210 -> 214 ;
215 [label="squared_error = 0.0\nsamples = 283\nvalue = 1.5", fillcolor="#f6d4bb"] ;
209 -> 215 ;
216 [label="squared_error = 0.0\nsamples = 313\nvalue = 2.0", fillcolor="#f3c3a1"] ;
208 -> 216 ;
217 [label="Savings_Percentage <= 14.5\nsquared_error = 0.426\nsamples = 1952\nvalue = 1.947", fillcolor="#f3c5a4"] ;
157 -> 217 ;
218 [label="Savings_Percentage <= 13.5\nsquared_error = 0.138\nsamples = 1319\nvalue = 2.224", fillcolor="#f1bc96"] ;
217 -> 218 ;
219 [label="Longitude (Deg East) <= 77.621\nsquared_error = 0.089\nsamples = 836\nvalue = 2.401", fillcolor="#f0b68c"] ;
218 -> 219 ;
220 [label="Latitude (Deg North) <= 30.125\nsquared_error = 0.052\nsamples = 797\nvalue = 2.445", fillcolor="#f0b58a"] ;
219 -> 220 ;
221 [label="squared_error = 0.0\nsamples = 592\nvalue = 2.5", fillcolor="#efb387"] ;
220 -> 221 ;
222 [label="squared_error = 0.169\nsamples = 205\nvalue = 2.285", fillcolor="#f1ba92"] ;
220 -> 222 ;
223 [label="squared_error = 0.0\nsamples = 39\nvalue = 1.5", fillcolor="#f6d4bb"] ;
219 -> 223 ;
224 [label="Latitude (Deg North) <= 29.28\nsquared_error = 0.074\nsamples = 483\nvalue = 1.919", fillcolor="#f3c6a5"] ;
218 -> 224 ;
225 [label="squared_error = 0.0\nsamples = 332\nvalue = 2.0", fillcolor="#f3c3a1"] ;
224 -> 225 ;
226 [label="squared_error = 0.192\nsamples = 151\nvalue = 1.742", fillcolor="#f4ccaf"] ;
224 -> 226 ;
227 [label="Latitude (Deg North) <= 28.62\nsquared_error = 0.532\nsamples = 633\nvalue = 1.37", fillcolor="#f7d8c2"] ;
217 -> 227 ;
228 [label="Longitude (Deg East) <= 86.42\nsquared_error = 0.056\nsamples = 433\nvalue = 1.83", fillcolor="#f4c9aa"] ;
227 -> 228 ;
229 [label="squared_error = 0.0\nsamples = 286\nvalue = 2.0", fillcolor="#f3c3a1"] ;
228 -> 229 ;
230 [label="squared_error = 0.0\nsamples = 147\nvalue = 1.5", fillcolor="#f6d4bb"] ;
228 -> 230 ;
231 [label="Latitude (Deg North) <= 30.98\nsquared_error = 0.108\nsamples = 200\nvalue = 0.372", fillcolor="#fef9f6"] ;
227 -> 231 ;
232 [label="squared_error = 0.0\nsamples = 43\nvalue = 1.0", fillcolor="#fae4d5"] ;
231 -> 232 ;
233 [label="squared_error = -0.0\nsamples = 157\nvalue = 0.2", fillcolor="#ffffff"] ;
231 -> 233 ;
234 [label="Longitude (Deg East) <= 90.129\nsquared_error = 0.394\nsamples = 29364\nvalue = 0.746", fillcolor="#fbede3"] ;
108 -> 234 ;
235 [label="Savings_Percentage <= 18.5\nsquared_error = 0.255\nsamples = 28611\nvalue = 0.687", fillcolor="#fcefe6"] ;
234 -> 235 ;
236 [label="Latitude (Deg North) <= 21.16\nsquared_error = 0.336\nsamples = 11977\nvalue = 0.97", fillcolor="#fae5d7"] ;
235 -> 236 ;
237 [label="Latitude (Deg North) <= 11.855\nsquared_error = 0.28\nsamples = 7436\nvalue = 0.804", fillcolor="#fbebe0"] ;
236 -> 237 ;
238 [label="squared_error = 0.0\nsamples = 627\nvalue = 1.5", fillcolor="#f6d4bb"] ;
237 -> 238 ;
239 [label="Longitude (Deg East) <= 79.679\nsquared_error = 0.257\nsamples = 6809\nvalue = 0.74", fillcolor="#fbede3"] ;
237 -> 239 ;
240 [label="Savings_Percentage <= 16.5\nsquared_error = 0.243\nsamples = 5886\nvalue = 0.674", fillcolor="#fcefe6"] ;
239 -> 240 ;
241 [label="Latitude (Deg North) <= 14.055\nsquared_error = 0.28\nsamples = 1703\nvalue = 0.87", fillcolor="#fae9dc"] ;
240 -> 241 ;
242 [label="Latitude (Deg North) <= 12.945\nsquared_error = 0.22\nsamples = 463\nvalue = 1.326", fillcolor="#f7dac4"] ;
241 -> 242 ;
243 [label="squared_error = 0.0\nsamples = 312\nvalue = 1.0", fillcolor="#fae4d5"] ;
242 -> 243 ;
244 [label="squared_error = 0.0\nsamples = 151\nvalue = 2.0", fillcolor="#f3c3a1"] ;
242 -> 244 ;
245 [label="Longitude (Deg East) <= 75.375\nsquared_error = 0.195\nsamples = 1240\nvalue = 0.699", fillcolor="#fceee5"] ;
241 -> 245 ;
246 [label="Longitude (Deg East) <= 73.353\nsquared_error = 0.062\nsamples = 309\nvalue = 1.243", fillcolor="#f8dcc9"] ;
245 -> 246 ;
247 [label="squared_error = 0.0\nsamples = 159\nvalue = 1.0", fillcolor="#fae4d5"] ;
246 -> 247 ;
248 [label="squared_error = 0.0\nsamples = 150\nvalue = 1.5", fillcolor="#f6d4bb"] ;
246 -> 248 ;
249 [label="Longitude (Deg East) <= 78.787\nsquared_error = 0.109\nsamples = 931\nvalue = 0.519", fillcolor="#fdf4ee"] ;
245 -> 249 ;
250 [label="Longitude (Deg East) <= 77.704\nsquared_error = 0.013\nsamples = 732\nvalue = 0.363", fillcolor="#fefaf7"] ;
249 -> 250 ;
251 [label="squared_error = 0.014\nsamples = 434\nvalue = 0.33", fillcolor="#fefbf8"] ;
250 -> 251 ;
252 [label="squared_error = 0.007\nsamples = 298\nvalue = 0.41", fillcolor="#fef8f4"] ;
250 -> 252 ;
253 [label="squared_error = 0.039\nsamples = 199\nvalue = 1.095", fillcolor="#f9e1d0"] ;
249 -> 253 ;
254 [label="Longitude (Deg East) <= 75.381\nsquared_error = 0.206\nsamples = 4183\nvalue = 0.594", fillcolor="#fcf2ea"] ;
240 -> 254 ;
255 [label="Latitude (Deg North) <= 14.205\nsquared_error = 0.068\nsamples = 2185\nvalue = 0.442", fillcolor="#fdf7f2"] ;
254 -> 255 ;
256 [label="Savings_Percentage <= 17.5\nsquared_error = 0.015\nsamples = 934\nvalue = 0.342", fillcolor="#fefaf8"] ;
255 -> 256 ;
257 [label="squared_error = 0.006\nsamples = 459\nvalue = 0.443", fillcolor="#fdf7f2"] ;
256 -> 257 ;
258 [label="squared_error = 0.004\nsamples = 475\nvalue = 0.245", fillcolor="#fffefd"] ;
256 -> 258 ;
259 [label="Latitude (Deg North) <= 18.795\nsquared_error = 0.095\nsamples = 1251\nvalue = 0.516", fillcolor="#fdf5ef"] ;
255 -> 259 ;
260 [label="Latitude (Deg North) <= 17.005\nsquared_error = 0.006\nsamples = 336\nvalue = 0.988", fillcolor="#fae5d6"] ;
259 -> 260 ;
261 [label="squared_error = 0.0\nsamples = 297\nvalue = 1.0", fillcolor="#fae4d5"] ;
260 -> 261 ;
262 [label="Savings_Percentage <= 17.5\nsquared_error = 0.041\nsamples = 39\nvalue = 0.897", fillcolor="#fae8db"] ;
260 -> 262 ;
263 [label="squared_error = 0.0\nsamples = 31\nvalue = 1.0", fillcolor="#fae4d5"] ;
262 -> 263 ;
264 [label="squared_error = 0.0\nsamples = 8\nvalue = 0.5", fillcolor="#fdf5ef"] ;
262 -> 264 ;
265 [label="Savings_Percentage <= 17.5\nsquared_error = 0.015\nsamples = 915\nvalue = 0.342", fillcolor="#fefaf8"] ;
259 -> 265 ;
266 [label="squared_error = 0.006\nsamples = 454\nvalue = 0.443", fillcolor="#fdf7f2"] ;
265 -> 266 ;
267 [label="squared_error = 0.004\nsamples = 461\nvalue = 0.243", fillcolor="#fffefd"] ;
265 -> 267 ;
268 [label="Longitude (Deg East) <= 78.041\nsquared_error = 0.304\nsamples = 1998\nvalue = 0.761", fillcolor="#fbece2"] ;
254 -> 268 ;
269 [label="Savings_Percentage <= 17.5\nsquared_error = 0.305\nsamples = 848\nvalue = 1.162", fillcolor="#f8dfcd"] ;
268 -> 269 ;
270 [label="Longitude (Deg East) <= 77.258\nsquared_error = 0.37\nsamples = 388\nvalue = 0.761", fillcolor="#fbece2"] ;
269 -> 270 ;
271 [label="squared_error = 0.004\nsamples = 232\nvalue = 0.264", fillcolor="#fffdfc"] ;
270 -> 271 ;
272 [label="squared_error = 0.0\nsamples = 156\nvalue = 1.5", fillcolor="#f6d4bb"] ;
270 -> 272 ;
273 [label="squared_error = -0.0\nsamples = 460\nvalue = 1.5", fillcolor="#f6d4bb"] ;
269 -> 273 ;
274 [label="Longitude (Deg East) <= 78.787\nsquared_error = 0.098\nsamples = 1150\nvalue = 0.466", fillcolor="#fdf6f1"] ;
268 -> 274 ;
275 [label="Savings_Percentage <= 17.5\nsquared_error = 0.109\nsamples = 564\nvalue = 0.385", fillcolor="#fef9f5"] ;
274 -> 275 ;
276 [label="squared_error = 0.11\nsamples = 438\nvalue = 0.417", fillcolor="#fef8f4"] ;
275 -> 276 ;
277 [label="squared_error = 0.089\nsamples = 126\nvalue = 0.272", fillcolor="#fffdfb"] ;
275 -> 277 ;
278 [label="Savings_Percentage <= 17.5\nsquared_error = 0.076\nsamples = 586\nvalue = 0.543", fillcolor="#fdf4ed"] ;
274 -> 278 ;
279 [label="squared_error = 0.0\nsamples = 109\nvalue = 1.0", fillcolor="#fae4d5"] ;
278 -> 279 ;
280 [label="squared_error = 0.035\nsamples = 477\nvalue = 0.439", fillcolor="#fdf7f3"] ;
278 -> 280 ;
281 [label="Longitude (Deg East) <= 81.745\nsquared_error = 0.139\nsamples = 923\nvalue = 1.161", fillcolor="#f8dfcd"] ;
239 -> 281 ;
282 [label="squared_error = 0.0\nsamples = 304\nvalue = 1.5", fillcolor="#f6d4bb"] ;
281 -> 282 ;
283 [label="Savings_Percentage <= 17.5\nsquared_error = 0.124\nsamples = 619\nvalue = 0.995", fillcolor="#fae5d6"] ;
281 -> 283 ;
284 [label="Savings_Percentage <= 16.5\nsquared_error = 0.055\nsamples = 463\nvalue = 1.162", fillcolor="#f8dfcd"] ;
283 -> 284 ;
285 [label="squared_error = 0.0\nsamples = 150\nvalue = 1.5", fillcolor="#f6d4bb"] ;
284 -> 285 ;
286 [label="squared_error = 0.0\nsamples = 313\nvalue = 1.0", fillcolor="#fae4d5"] ;
284 -> 286 ;
287 [label="squared_error = 0.0\nsamples = 156\nvalue = 0.5", fillcolor="#fdf5ef"] ;
283 -> 287 ;
288 [label="Latitude (Deg North) <= 29.465\nsquared_error = 0.308\nsamples = 4541\nvalue = 1.243", fillcolor="#f8dcc9"] ;
236 -> 288 ;
289 [label="Latitude (Deg North) <= 27.47\nsquared_error = 0.155\nsamples = 2969\nvalue = 1.457", fillcolor="#f6d5be"] ;
288 -> 289 ;
290 [label="Savings_Percentage <= 17.5\nsquared_error = 0.112\nsamples = 2122\nvalue = 1.302", fillcolor="#f7dac6"] ;
289 -> 290 ;
291 [label="Latitude (Deg North) <= 26.885\nsquared_error = 0.114\nsamples = 1659\nvalue = 1.374", fillcolor="#f7d8c2"] ;
290 -> 291 ;
292 [label="Longitude (Deg East) <= 72.701\nsquared_error = 0.036\nsamples = 1192\nvalue = 1.456", fillcolor="#f6d5be"] ;
291 -> 292 ;
293 [label="Savings_Percentage <= 16.5\nsquared_error = 0.062\nsamples = 255\nvalue = 1.22", fillcolor="#f8ddca"] ;
292 -> 293 ;
294 [label="squared_error = 0.0\nsamples = 112\nvalue = 1.5", fillcolor="#f6d4bb"] ;
293 -> 294 ;
295 [label="squared_error = 0.0\nsamples = 143\nvalue = 1.0", fillcolor="#fae4d5"] ;
293 -> 295 ;
296 [label="Savings_Percentage <= 16.5\nsquared_error = 0.01\nsamples = 937\nvalue = 1.521", fillcolor="#f6d3ba"] ;
292 -> 296 ;
297 [label="squared_error = 0.041\nsamples = 187\nvalue = 1.604", fillcolor="#f5d0b6"] ;
296 -> 297 ;
298 [label="squared_error = 0.0\nsamples = 750\nvalue = 1.5", fillcolor="#f6d4bb"] ;
296 -> 298 ;
299 [label="Savings_Percentage <= 16.5\nsquared_error = 0.25\nsamples = 467\nvalue = 1.165", fillcolor="#f8dfcd"] ;
291 -> 299 ;
300 [label="squared_error = 0.315\nsamples = 265\nvalue = 1.141", fillcolor="#f9e0ce"] ;
299 -> 300 ;
301 [label="squared_error = 0.163\nsamples = 202\nvalue = 1.196", fillcolor="#f8decb"] ;
299 -> 301 ;
302 [label="Longitude (Deg East) <= 74.75\nsquared_error = 0.02\nsamples = 463\nvalue = 1.043", fillcolor="#f9e3d3"] ;
290 -> 302 ;
303 [label="Longitude (Deg East) <= 72.701\nsquared_error = 0.028\nsamples = 310\nvalue = 1.065", fillcolor="#f9e2d2"] ;
302 -> 303 ;
304 [label="squared_error = 0.0\nsamples = 118\nvalue = 1.0", fillcolor="#fae4d5"] ;
303 -> 304 ;
305 [label="Latitude (Deg North) <= 22.875\nsquared_error = 0.041\nsamples = 192\nvalue = 1.104", fillcolor="#f9e1d0"] ;
303 -> 305 ;
306 [label="squared_error = 0.0\nsamples = 2\nvalue = 1.5", fillcolor="#f6d4bb"] ;
305 -> 306 ;
307 [label="squared_error = 0.04\nsamples = 190\nvalue = 1.1", fillcolor="#f9e1d0"] ;
305 -> 307 ;
308 [label="squared_error = 0.0\nsamples = 153\nvalue = 1.0", fillcolor="#fae4d5"] ;
302 -> 308 ;
309 [label="Savings_Percentage <= 17.5\nsquared_error = 0.054\nsamples = 847\nvalue = 1.844", fillcolor="#f4c9a9"] ;
289 -> 309 ;
310 [label="Savings_Percentage <= 16.5\nsquared_error = 0.021\nsamples = 640\nvalue = 1.955", fillcolor="#f3c5a4"] ;
309 -> 310 ;
311 [label="squared_error = 0.0\nsamples = 427\nvalue = 2.0", fillcolor="#f3c3a1"] ;
310 -> 311 ;
312 [label="Longitude (Deg East) <= 75.26\nsquared_error = 0.05\nsamples = 213\nvalue = 1.864", fillcolor="#f4c8a8"] ;
310 -> 312 ;
313 [label="squared_error = 0.0\nsamples = 118\nvalue = 2.0", fillcolor="#f3c3a1"] ;
312 -> 313 ;
314 [label="squared_error = 0.059\nsamples = 95\nvalue = 1.695", fillcolor="#f5cdb1"] ;
312 -> 314 ;
315 [label="squared_error = 0.0\nsamples = 207\nvalue = 1.5", fillcolor="#f6d4bb"] ;
309 -> 315 ;
316 [label="Longitude (Deg East) <= 76.453\nsquared_error = 0.348\nsamples = 1572\nvalue = 0.839", fillcolor="#fbeade"] ;
288 -> 316 ;
317 [label="Savings_Percentage <= 17.5\nsquared_error = 0.354\nsamples = 1453\nvalue = 0.879", fillcolor="#fae8dc"] ;
316 -> 317 ;
318 [label="Savings_Percentage <= 16.5\nsquared_error = 0.393\nsamples = 1301\nvalue = 0.865", fillcolor="#fae9dc"] ;
317 -> 318 ;
319 [label="squared_error = 0.556\nsamples = 685\nvalue = 0.905", fillcolor="#fae8da"] ;
318 -> 319 ;
320 [label="squared_error = 0.208\nsamples = 616\nvalue = 0.82", fillcolor="#fbeadf"] ;
318 -> 320 ;
321 [label="squared_error = 0.0\nsamples = 152\nvalue = 1.0", fillcolor="#fae4d5"] ;
317 -> 321 ;
322 [label="Savings_Percentage <= 17.5\nsquared_error = 0.015\nsamples = 119\nvalue = 0.346", fillcolor="#fefaf7"] ;
316 -> 322 ;
323 [label="squared_error = 0.007\nsamples = 80\nvalue = 0.417", fillcolor="#fef8f4"] ;
322 -> 323 ;
324 [label="squared_error = -0.0\nsamples = 39\nvalue = 0.2", fillcolor="#ffffff"] ;
322 -> 324 ;
325 [label="Savings_Percentage <= 20.5\nsquared_error = 0.097\nsamples = 16634\nvalue = 0.483", fillcolor="#fdf6f0"] ;
235 -> 325 ;
326 [label="Latitude (Deg North) <= 17.68\nsquared_error = 0.129\nsamples = 7711\nvalue = 0.612", fillcolor="#fcf1ea"] ;
325 -> 326 ;
327 [label="Longitude (Deg East) <= 74.867\nsquared_error = 0.025\nsamples = 1431\nvalue = 0.944", fillcolor="#fae6d8"] ;
326 -> 327 ;
328 [label="squared_error = 0.0\nsamples = 160\nvalue = 0.5", fillcolor="#fdf5ef"] ;
327 -> 328 ;
329 [label="squared_error = 0.0\nsamples = 1271\nvalue = 1.0", fillcolor="#fae4d5"] ;
327 -> 329 ;
330 [label="Longitude (Deg East) <= 73.512\nsquared_error = 0.122\nsamples = 6280\nvalue = 0.536", fillcolor="#fdf4ed"] ;
326 -> 330 ;
331 [label="Longitude (Deg East) <= 72.701\nsquared_error = 0.199\nsamples = 967\nvalue = 0.892", fillcolor="#fae8db"] ;
330 -> 331 ;
332 [label="squared_error = 0.007\nsamples = 424\nvalue = 0.438", fillcolor="#fdf7f3"] ;
331 -> 332 ;
333 [label="Latitude (Deg North) <= 24.595\nsquared_error = 0.062\nsamples = 543\nvalue = 1.246", fillcolor="#f8dcc9"] ;
331 -> 333 ;
334 [label="squared_error = 0.0\nsamples = 276\nvalue = 1.0", fillcolor="#fae4d5"] ;
333 -> 334 ;
335 [label="squared_error = 0.0\nsamples = 267\nvalue = 1.5", fillcolor="#f6d4bb"] ;
333 -> 335 ;
336 [label="Latitude (Deg North) <= 21.86\nsquared_error = 0.081\nsamples = 5313\nvalue = 0.472", fillcolor="#fdf6f1"] ;
330 -> 336 ;
337 [label="Savings_Percentage <= 19.5\nsquared_error = 0.013\nsamples = 1271\nvalue = 0.31", fillcolor="#fefbf9"] ;
336 -> 337 ;
338 [label="Longitude (Deg East) <= 76.472\nsquared_error = 0.011\nsamples = 928\nvalue = 0.337", fillcolor="#fefaf8"] ;
337 -> 338 ;
339 [label="squared_error = 0.007\nsamples = 55\nvalue = 0.395", fillcolor="#fef9f5"] ;
338 -> 339 ;
340 [label="Latitude (Deg North) <= 19.42\nsquared_error = 0.011\nsamples = 873\nvalue = 0.334", fillcolor="#fefbf8"] ;
338 -> 340 ;
341 [label="squared_error = 0.011\nsamples = 623\nvalue = 0.339", fillcolor="#fefaf8"] ;
340 -> 341 ;
342 [label="squared_error = 0.011\nsamples = 250\nvalue = 0.32", fillcolor="#fefbf9"] ;
340 -> 342 ;
343 [label="Latitude (Deg North) <= 19.835\nsquared_error = 0.01\nsamples = 343\nvalue = 0.237", fillcolor="#fffefd"] ;
337 -> 343 ;
344 [label="squared_error = -0.0\nsamples = 189\nvalue = 0.2", fillcolor="#ffffff"] ;
343 -> 344 ;
345 [label="squared_error = 0.018\nsamples = 154\nvalue = 0.282", fillcolor="#fefcfb"] ;
343 -> 345 ;
346 [label="Savings_Percentage <= 19.5\nsquared_error = 0.091\nsamples = 4042\nvalue = 0.522", fillcolor="#fdf4ee"] ;
336 -> 346 ;
347 [label="Longitude (Deg East) <= 77.311\nsquared_error = 0.108\nsamples = 2162\nvalue = 0.637", fillcolor="#fcf1e8"] ;
346 -> 347 ;
348 [label="Longitude (Deg East) <= 74.75\nsquared_error = 0.096\nsamples = 1773\nvalue = 0.557", fillcolor="#fdf3ec"] ;
347 -> 348 ;
349 [label="squared_error = 0.092\nsamples = 616\nvalue = 0.507", fillcolor="#fdf5ef"] ;
348 -> 349 ;
350 [label="Latitude (Deg North) <= 27.765\nsquared_error = 0.096\nsamples = 1157\nvalue = 0.584", fillcolor="#fcf2eb"] ;
348 -> 350 ;
351 [label="squared_error = 0.073\nsamples = 422\nvalue = 0.577", fillcolor="#fcf3eb"] ;
350 -> 351 ;
352 [label="squared_error = 0.109\nsamples = 735\nvalue = 0.588", fillcolor="#fcf2eb"] ;
350 -> 352 ;
353 [label="squared_error = -0.0\nsamples = 389\nvalue = 1.0", fillcolor="#fae4d5"] ;
347 -> 353 ;
354 [label="Longitude (Deg East) <= 76.498\nsquared_error = 0.04\nsamples = 1880\nvalue = 0.39", fillcolor="#fef9f5"] ;
346 -> 354 ;
355 [label="Longitude (Deg East) <= 74.75\nsquared_error = 0.015\nsamples = 845\nvalue = 0.334", fillcolor="#fefbf8"] ;
354 -> 355 ;
356 [label="squared_error = 0.015\nsamples = 453\nvalue = 0.342", fillcolor="#fefaf8"] ;
355 -> 356 ;
357 [label="squared_error = 0.015\nsamples = 392\nvalue = 0.326", fillcolor="#fefbf8"] ;
355 -> 357 ;
358 [label="Longitude (Deg East) <= 77.311\nsquared_error = 0.056\nsamples = 1035\nvalue = 0.436", fillcolor="#fdf7f3"] ;
354 -> 358 ;
359 [label="squared_error = 0.13\nsamples = 390\nvalue = 0.459", fillcolor="#fdf6f1"] ;
358 -> 359 ;
360 [label="Longitude (Deg East) <= 79.179\nsquared_error = 0.01\nsamples = 645\nvalue = 0.422", fillcolor="#fdf8f3"] ;
358 -> 360 ;
361 [label="squared_error = 0.015\nsamples = 113\nvalue = 0.331", fillcolor="#fefbf8"] ;
360 -> 361 ;
362 [label="Longitude (Deg East) <= 84.655\nsquared_error = 0.007\nsamples = 532\nvalue = 0.441", fillcolor="#fdf7f2"] ;
360 -> 362 ;
363 [label="squared_error = 0.007\nsamples = 78\nvalue = 0.422", fillcolor="#fdf8f3"] ;
362 -> 363 ;
364 [label="squared_error = 0.006\nsamples = 454\nvalue = 0.445", fillcolor="#fdf7f2"] ;
362 -> 364 ;
365 [label="Savings_Percentage <= 25.5\nsquared_error = 0.042\nsamples = 8923\nvalue = 0.372", fillcolor="#fef9f6"] ;
325 -> 365 ;
366 [label="Latitude (Deg North) <= 27.47\nsquared_error = 0.046\nsamples = 7205\nvalue = 0.404", fillcolor="#fef8f4"] ;
365 -> 366 ;
367 [label="Latitude (Deg North) <= 21.87\nsquared_error = 0.033\nsamples = 6470\nvalue = 0.374", fillcolor="#fef9f6"] ;
366 -> 367 ;
368 [label="Savings_Percentage <= 21.5\nsquared_error = 0.035\nsamples = 5451\nvalue = 0.399", fillcolor="#fef8f5"] ;
367 -> 368 ;
369 [label="Latitude (Deg North) <= 11.88\nsquared_error = 0.08\nsamples = 951\nvalue = 0.601", fillcolor="#fcf2ea"] ;
368 -> 369 ;
370 [label="squared_error = 0.0\nsamples = 159\nvalue = 1.0", fillcolor="#fae4d5"] ;
369 -> 370 ;
371 [label="Latitude (Deg North) <= 16.58\nsquared_error = 0.057\nsamples = 792\nvalue = 0.521", fillcolor="#fdf4ee"] ;
369 -> 371 ;
372 [label="Longitude (Deg East) <= 75.711\nsquared_error = 0.007\nsamples = 611\nvalue = 0.418", fillcolor="#fef8f4"] ;
371 -> 372 ;
373 [label="squared_error = 0.007\nsamples = 317\nvalue = 0.416", fillcolor="#fef8f4"] ;
372 -> 373 ;
374 [label="squared_error = 0.007\nsamples = 294\nvalue = 0.421", fillcolor="#fdf8f3"] ;
372 -> 374 ;
375 [label="Longitude (Deg East) <= 77.497\nsquared_error = 0.072\nsamples = 181\nvalue = 0.867", fillcolor="#fae9dc"] ;
371 -> 375 ;
376 [label="squared_error = 0.0\nsamples = 145\nvalue = 1.0", fillcolor="#fae4d5"] ;
375 -> 376 ;
377 [label="squared_error = -0.0\nsamples = 36\nvalue = 0.33", fillcolor="#fefbf8"] ;
375 -> 377 ;
378 [label="Savings_Percentage <= 24.5\nsquared_error = 0.015\nsamples = 4500\nvalue = 0.357", fillcolor="#fefaf7"] ;
368 -> 378 ;
379 [label="Latitude (Deg North) <= 16.435\nsquared_error = 0.015\nsamples = 3192\nvalue = 0.374", fillcolor="#fef9f6"] ;
378 -> 379 ;
380 [label="Longitude (Deg East) <= 78.15\nsquared_error = 0.016\nsamples = 2486\nvalue = 0.354", fillcolor="#fefaf7"] ;
379 -> 380 ;
381 [label="Latitude (Deg North) <= 10.74\nsquared_error = 0.014\nsamples = 1881\nvalue = 0.32", fillcolor="#fefbf9"] ;
380 -> 381 ;
382 [label="Savings_Percentage <= 23.5\nsquared_error = 0.013\nsamples = 788\nvalue = 0.374", fillcolor="#fef9f6"] ;
381 -> 382 ;
383 [label="Savings_Percentage <= 22.5\nsquared_error = 0.006\nsamples = 479\nvalue = 0.445", fillcolor="#fdf7f2"] ;
382 -> 383 ;
384 [label="squared_error = 0.0\nsamples = 157\nvalue = 0.5", fillcolor="#fdf5ef"] ;
383 -> 384 ;
385 [label="squared_error = 0.007\nsamples = 322\nvalue = 0.418", fillcolor="#fef8f4"] ;
383 -> 385 ;
386 [label="squared_error = 0.004\nsamples = 309\nvalue = 0.264", fillcolor="#fffdfc"] ;
382 -> 386 ;
387 [label="Latitude (Deg North) <= 14.23\nsquared_error = 0.011\nsamples = 1093\nvalue = 0.281", fillcolor="#fefcfb"] ;
381 -> 387 ;
388 [label="Savings_Percentage <= 22.5\nsquared_error = 0.015\nsamples = 639\nvalue = 0.309", fillcolor="#fefbf9"] ;
387 -> 388 ;
389 [label="squared_error = 0.021\nsamples = 326\nvalue = 0.348", fillcolor="#fefaf7"] ;
388 -> 389 ;
390 [label="squared_error = 0.004\nsamples = 313\nvalue = 0.267", fillcolor="#fffdfb"] ;
388 -> 390 ;
391 [label="Savings_Percentage <= 22.5\nsquared_error = 0.004\nsamples = 454\nvalue = 0.243", fillcolor="#fffefd"] ;
387 -> 391 ;
392 [label="squared_error = 0.004\nsamples = 297\nvalue = 0.266", fillcolor="#fffdfc"] ;
391 -> 392 ;
393 [label="squared_error = -0.0\nsamples = 157\nvalue = 0.2", fillcolor="#ffffff"] ;
391 -> 393 ;
394 [label="Latitude (Deg North) <= 11.935\nsquared_error = 0.005\nsamples = 605\nvalue = 0.458", fillcolor="#fdf6f2"] ;
380 -> 394 ;
395 [label="squared_error = 0.0\nsamples = 152\nvalue = 0.5", fillcolor="#fdf5ef"] ;
394 -> 395 ;
396 [label="Savings_Percentage <= 23.5\nsquared_error = 0.006\nsamples = 453\nvalue = 0.444", fillcolor="#fdf7f2"] ;
394 -> 396 ;
397 [label="squared_error = 0.0\nsamples = 150\nvalue = 0.5", fillcolor="#fdf5ef"] ;
396 -> 397 ;
398 [label="squared_error = 0.007\nsamples = 303\nvalue = 0.417", fillcolor="#fef8f4"] ;
396 -> 398 ;
399 [label="Longitude (Deg East) <= 78.787\nsquared_error = 0.008\nsamples = 706\nvalue = 0.447", fillcolor="#fdf7f2"] ;
379 -> 399 ;
400 [label="Savings_Percentage <= 23.5\nsquared_error = 0.005\nsamples = 670\nvalue = 0.46", fillcolor="#fdf6f1"] ;
399 -> 400 ;
401 [label="squared_error = 0.0\nsamples = 283\nvalue = 0.5", fillcolor="#fdf5ef"] ;
400 -> 401 ;
402 [label="Longitude (Deg East) <= 74.369\nsquared_error = 0.007\nsamples = 387\nvalue = 0.431", fillcolor="#fdf7f3"] ;
400 -> 402 ;
403 [label="squared_error = 0.007\nsamples = 270\nvalue = 0.401", fillcolor="#fef8f5"] ;
402 -> 403 ;
404 [label="squared_error = 0.0\nsamples = 117\nvalue = 0.5", fillcolor="#fdf5ef"] ;
402 -> 404 ;
405 [label="squared_error = -0.0\nsamples = 36\nvalue = 0.2", fillcolor="#ffffff"] ;
399 -> 405 ;
406 [label="Latitude (Deg North) <= 9.65\nsquared_error = 0.011\nsamples = 1308\nvalue = 0.314", fillcolor="#fefbf9"] ;
378 -> 406 ;
407 [label="squared_error = 0.0\nsamples = 155\nvalue = 0.2", fillcolor="#ffffff"] ;
406 -> 407 ;
408 [label="Latitude (Deg North) <= 11.935\nsquared_error = 0.01\nsamples = 1153\nvalue = 0.329", fillcolor="#fefbf8"] ;
406 -> 408 ;
409 [label="squared_error = 0.007\nsamples = 302\nvalue = 0.416", fillcolor="#fef8f4"] ;
408 -> 409 ;
410 [label="Latitude (Deg North) <= 19.42\nsquared_error = 0.008\nsamples = 851\nvalue = 0.298", fillcolor="#fefcfa"] ;
408 -> 410 ;
411 [label="Latitude (Deg North) <= 15.23\nsquared_error = 0.008\nsamples = 582\nvalue = 0.319", fillcolor="#fefbf9"] ;
410 -> 411 ;
412 [label="squared_error = 0.004\nsamples = 310\nvalue = 0.265", fillcolor="#fffdfc"] ;
411 -> 412 ;
413 [label="Longitude (Deg East) <= 77.197\nsquared_error = 0.006\nsamples = 272\nvalue = 0.38", fillcolor="#fef9f6"] ;
411 -> 413 ;
414 [label="squared_error = 0.007\nsamples = 231\nvalue = 0.389", fillcolor="#fef9f5"] ;
413 -> 414 ;
415 [label="squared_error = 0.0\nsamples = 41\nvalue = 0.33", fillcolor="#fefbf8"] ;
413 -> 415 ;
416 [label="squared_error = 0.004\nsamples = 269\nvalue = 0.254", fillcolor="#fffdfc"] ;
410 -> 416 ;
417 [label="Latitude (Deg North) <= 24.94\nsquared_error = 0.003\nsamples = 1019\nvalue = 0.236", fillcolor="#fffefd"] ;
367 -> 417 ;
418 [label="Savings_Percentage <= 21.5\nsquared_error = 0.004\nsamples = 864\nvalue = 0.242", fillcolor="#fffefd"] ;
417 -> 418 ;
419 [label="Longitude (Deg East) <= 80.468\nsquared_error = 0.004\nsamples = 748\nvalue = 0.249", fillcolor="#fffdfc"] ;
418 -> 419 ;
420 [label="squared_error = 0.004\nsamples = 278\nvalue = 0.255", fillcolor="#fffdfc"] ;
419 -> 420 ;
421 [label="squared_error = 0.004\nsamples = 470\nvalue = 0.245", fillcolor="#fffdfd"] ;
419 -> 421 ;
422 [label="squared_error = 0.0\nsamples = 116\nvalue = 0.2", fillcolor="#ffffff"] ;
418 -> 422 ;
423 [label="Longitude (Deg East) <= 78.367\nsquared_error = 0.0\nsamples = 155\nvalue = 0.2", fillcolor="#ffffff"] ;
417 -> 423 ;
424 [label="squared_error = 0.0\nsamples = 118\nvalue = 0.2", fillcolor="#ffffff"] ;
423 -> 424 ;
425 [label="squared_error = 0.0\nsamples = 37\nvalue = 0.2", fillcolor="#ffffff"] ;
423 -> 425 ;
426 [label="Savings_Percentage <= 23.5\nsquared_error = 0.076\nsamples = 735\nvalue = 0.675", fillcolor="#fcefe6"] ;
366 -> 426 ;
427 [label="squared_error = 0.0\nsamples = 299\nvalue = 1.0", fillcolor="#fae4d5"] ;
426 -> 427 ;
428 [label="Latitude (Deg North) <= 28.315\nsquared_error = 0.006\nsamples = 436\nvalue = 0.452", fillcolor="#fdf7f2"] ;
426 -> 428 ;
429 [label="squared_error = 0.006\nsamples = 397\nvalue = 0.447", fillcolor="#fdf7f2"] ;
428 -> 429 ;
430 [label="squared_error = 0.0\nsamples = 39\nvalue = 0.5", fillcolor="#fdf5ef"] ;
428 -> 430 ;
431 [label="Savings_Percentage <= 26.5\nsquared_error = 0.003\nsamples = 1718\nvalue = 0.237", fillcolor="#fffefd"] ;
365 -> 431 ;
432 [label="Latitude (Deg North) <= 11.935\nsquared_error = 0.004\nsamples = 1101\nvalue = 0.258", fillcolor="#fffdfc"] ;
431 -> 432 ;
433 [label="squared_error = 0.0\nsamples = 155\nvalue = 0.33", fillcolor="#fefbf8"] ;
432 -> 433 ;
434 [label="Longitude (Deg East) <= 77.848\nsquared_error = 0.004\nsamples = 946\nvalue = 0.247", fillcolor="#fffdfd"] ;
432 -> 434 ;
435 [label="Longitude (Deg East) <= 73.071\nsquared_error = 0.004\nsamples = 762\nvalue = 0.258", fillcolor="#fffdfc"] ;
434 -> 435 ;
436 [label="squared_error = 0.0\nsamples = 124\nvalue = 0.2", fillcolor="#ffffff"] ;
435 -> 436 ;
437 [label="Longitude (Deg East) <= 76.558\nsquared_error = 0.004\nsamples = 638\nvalue = 0.269", fillcolor="#fffdfb"] ;
435 -> 437 ;
438 [label="Latitude (Deg North) <= 22.845\nsquared_error = 0.004\nsamples = 600\nvalue = 0.265", fillcolor="#fffdfc"] ;
437 -> 438 ;
439 [label="squared_error = 0.004\nsamples = 305\nvalue = 0.266", fillcolor="#fffdfc"] ;
438 -> 439 ;
440 [label="squared_error = 0.004\nsamples = 295\nvalue = 0.264", fillcolor="#fffdfc"] ;
438 -> 440 ;
441 [label="squared_error = -0.0\nsamples = 38\nvalue = 0.33", fillcolor="#fefbf8"] ;
437 -> 441 ;
442 [label="Latitude (Deg North) <= 15.23\nsquared_error = 0.0\nsamples = 184\nvalue = 0.2", fillcolor="#ffffff"] ;
434 -> 442 ;
443 [label="squared_error = 0.0\nsamples = 150\nvalue = 0.2", fillcolor="#ffffff"] ;
442 -> 443 ;
444 [label="squared_error = -0.0\nsamples = 34\nvalue = 0.2", fillcolor="#ffffff"] ;
442 -> 444 ;
445 [label="Longitude (Deg East) <= 74.609\nsquared_error = 0.0\nsamples = 617\nvalue = 0.2", fillcolor="#ffffff"] ;
431 -> 445 ;
446 [label="squared_error = 0.0\nsamples = 111\nvalue = 0.2", fillcolor="#ffffff"] ;
445 -> 446 ;
447 [label="squared_error = -0.0\nsamples = 506\nvalue = 0.2", fillcolor="#ffffff"] ;
445 -> 447 ;
448 [label="Savings_Percentage <= 24.0\nsquared_error = 0.501\nsamples = 753\nvalue = 2.996", fillcolor="#eca26d"] ;
234 -> 448 ;
449 [label="squared_error = 0.0\nsamples = 148\nvalue = 2.0", fillcolor="#f3c3a1"] ;
448 -> 449 ;
450 [label="Savings_Percentage <= 27.0\nsquared_error = 0.322\nsamples = 605\nvalue = 3.24", fillcolor="#ea9a61"] ;
448 -> 450 ;
451 [label="squared_error = 0.0\nsamples = 150\nvalue = 4.0", fillcolor="#e58139"] ;
450 -> 451 ;
452 [label="Savings_Percentage <= 28.5\nsquared_error = 0.175\nsamples = 455\nvalue = 2.989", fillcolor="#eca36e"] ;
450 -> 452 ;
453 [label="squared_error = 0.0\nsamples = 164\nvalue = 2.5", fillcolor="#efb387"] ;
452 -> 453 ;
454 [label="squared_error = 0.062\nsamples = 291\nvalue = 3.265", fillcolor="#ea995f"] ;
452 -> 454 ;
}